2 -2 -1 2 -4 3 -1 2 1 -1 1 0 2 -2 0 0 1 0 4 1 -2 -3 -1 -2 -1 0 3 2 -4 3 1 4 3 -4 -4 -2 4 -1 2 -2 5 -2 3 0 -3 2 -3 1 -2 -1 -4 -2 2 -1 5 4 0 -3 3 1 -3 3 3 4 -3 -2 -1 -1 -6 -6 -2 -7 -5 -6 -4 -3 -1 1 -5 2 -3 -3 0 -1 3 -3 -4 3 -1 2 1 -4 -1 -4 -11 -11 -8 -9 -12 -14 -10 -16 -16 -16 -18 -16 -4 -3 3 1 1 3 4 -3 1 3 3 1 -6 -7 -9 -9 -8 -15 -10 -9 -8 -8 -9 -6 -17 -13 -4 -7 -4 -2 -1 0 -3 -4 -2 -1 -3 2 0 -4 -5 -6 -10 -13 -14 -3 1 17 17 22 23 27 24 10 -2 1 -5 -6 -14 -5 -3 -1 -4 -2 -1 2 -1 -3 -3 -8 -14 -17 -11 0 4 13 13 25 27 37 23 21 20 16 12 -10 -21 -12 -2 -4 2 3 4 -4 -3 -10 -7 -16 -19 -11 -5 2 11 11 11 20 23 39 37 26 19 10 12 10 -20 -14 -10 -3 2 -3 -1 2 -5 -7 -13 -19 -13 -12 -1 3 -2 2 8 12 32 36 32 15 6 6 11 17 -12 -17 -1 -2 0 2 0 -5 -6 -8 -13 -11 -8 -5 -4 -4 -2 -1 7 3 21 25 36 25 7 6 14 30 0 -16 -6 0 -1 1 3 -1 -10 -11 -13 -2 -9 -10 -9 -4 3 -3 -18 -31 -30 2 24 27 25 18 29 45 22 -7 -5 4 1 4 -2 -5 -17 -7 4 -4 -4 -6 -1 3 -2 -21 -54 -78 -75 -46 -8 17 22 33 44 54 33 -4 0 -1 -3 -3 1 -2 -14 -2 6 10 -4 -8 3 5 -2 -41 -84 -105 -105 -70 -28 -9 5 24 50 54 29 -4 3 -1 2 0 -5 -5 -5 6 11 12 3 0 19 9 -13 -60 -94 -107 -104 -74 -37 -33 -20 14 44 54 31 -1 1 4 1 -2 4 -4 -2 19 29 23 9 17 24 4 -27 -77 -101 -111 -93 -61 -35 -21 -8 8 32 48 24 4 -3 -2 -4 4 1 -2 -1 28 25 24 21 25 29 -14 -57 -96 -109 -113 -82 -51 -15 -7 -5 13 23 40 21 2 -3 3 -2 -4 1 -4 4 28 39 29 17 21 23 -29 -81 -117 -110 -96 -67 -25 -4 -1 4 13 22 21 14 3 3 4 -4 2 1 -11 -1 24 35 25 23 28 18 -22 -85 -105 -102 -77 -29 -3 10 8 14 10 13 13 2 -5 -4 -2 -1 -3 -2 -15 -2 17 24 18 13 36 43 -12 -63 -80 -70 -35 -12 5 8 1 -1 3 10 5 0 -4 1 1 2 1 -1 -12 -3 10 18 18 17 29 45 19 -15 -27 -29 -13 -6 -1 -9 -11 -1 1 -1 -2 3 -3 -3 -3 -2 -1 -2 -11 -5 7 14 11 15 28 50 35 10 -7 -12 -9 -9 -10 -14 -17 -4 1 -5 -2 -2 -4 -2 3 2 4 -1 -2 -5 6 13 20 13 21 36 45 24 6 1 -6 -12 -19 -14 -11 -10 -6 -7 -6 -3 1 1 3 2 2 4 -1 -6 -1 13 17 23 26 23 38 31 32 18 7 1 -9 -16 -12 -12 -13 -12 -6 -1 -1 4 4 3 2 -4 3 -8 -3 -3 8 14 24 28 35 34 31 15 8 -5 -5 -18 -24 -16 -13 -1 -4 -4 -3 2 -1 -4 1 0 2 -3 -5 -1 -12 -6 -6 -8 -6 2 -3 -4 -12 -17 -25 -18 -18 -16 -10 -6 -5 2 -2 3 3 -3 -3 -2 3 0 -3 -2 -5 -11 -24 -25 -26 -26 -31 -30 -24 -23 -18 -16 -13 -3 -1 0 -5 2 3 1 -2 0 -2 4 4 -1 -4 1 0 -2 -11 -6 -8 -10 -11 -8 -7 -11 -3 -1 1 1 -2 2 3 2 -3 -2 4 3 3 -2 -1 -3 -3 3 -4 -1 1 -3 1 -2 0 -6 -1 -6 2 3 -2 0 -3 -3 -2 -2 1 -1 0
-4 -3 -4 -3 4 2 -4 -1 0 2 4 1 3 -2 0 -3 1 4 3 5 -2 -1 1 4 -4 -2 1 -3 2 0 -1 2 3 4 2 0 4 4 -2 2 1 -2 -1 -1 -3 -2 2 3 0 -5 2 -1 4 -4 -1 4 2 -2 -4 0 2 -4 -4 0 -1 3 -5 -1 -4 -1 -1 4 -5 -6 -5 -7 1 -2 -3 3 -1 2 -1 -4 1 3 -4 0 1 0 0 -2 -5 -5 -13 -15 -13 -11 -4 -2 -5 -15 -13 -12 -10 -3 1 3 2 2 -2 -3 -2 4 -1 0 -4 -1 -3 -8 -8 -19 -14 -5 4 13 9 6 -6 -6 -9 4 20 24 18 6 0 1 -4 3 1 -4 2 3 2 1 -5 -14 -24 -28 -25 -1 13 13 5 -4 -20 -25 -15 2 23 33 25 10 -3 -3 4 -3 0 4 -4 -1 4 -3 -10 -23 -36 -52 -45 -21 -2 -2 -15 -40 -42 -45 -25 -6 11 16 8 -9 -10 -10 2 3 -1 2 1 3 -4 -8 -20 -24 -49 -60 -56 -35 -19 -24 -35 -37 -47 -44 -28 0 1 -5 -12 -25 -21 -8 2 -2 -1 -4 3 4 3 -8 -20 -32 -46 -64 -67 -53 -34 -15 -12 -5 -20 -17 -12 -14 -25 -27 -41 -39 -23 -11 2 -1 -4 1 -3 0 -5 -6 -21 -23 -38 -49 -57 -46 -33 -1 27 35 19 -9 -16 -30 -37 -49 -50 -33 -21 -6 -5 0 -4 0 0 -4 -6 -8 -10 -16 -31 -38 -47 -50 -36 15 70 79 38 -11 -25 -34 -40 -40 -34 -24 -11 2 2 1 -3 -3 4 -1 -6 -4 -10 -14 -20 -30 -51 -63 -46 27 99 99 34 -17 -30 -34 -39 -24 -16 -5 -7 -5 -1 1 3 4 3 1 -2 -3 -9 -10 -23 -33 -61 -77 -46 40 108 82 10 -22 -33 -36 -33 -13 -7 -6 -2 -1 -3 -2 0 -4 -4 1 -3 -4 -5 -14 -18 -46 -79 -87 -42 49 108 63 -6 -24 -47 -36 -28 -19 -9 -9 -1 -2 0 -2 2 4 -1 -3 -5 2 -4 -11 -26 -50 -77 -73 -16 59 94 54 -13 -56 -50 -35 -22 -18 -11 -4 -2 4 2 1 1 -4 -2 1 -4 -7 -6 -15 -33 -51 -64 -39 10 62 85 23 -31 -72 -57 -39 -27 -21 -14 -9 -7 -4 3 3 4 -3 3 -2 -2 -6 -14 -25 -36 -48 -35 -24 9 66 74 4 -57 -75 -56 -39 -24 -20 -11 -8 -8 -2 3 1 1 0 -2 -3 3 -10 -21 -31 -37 -30 -13 -7 31 70 52 -22 -64 -75 -54 -38 -23 -17 -13 -12 -7 -3 3 1 0 1 3 0 -1 -19 -37 -37 -30 -11 2 9 33 53 37 -27 -52 -50 -49 -31 -24 -17 -21 -19 -10 0 0 0 0 2 0 -5 -10 -23 -42 -31 -18 -1 -6 1 17 25 7 -22 -35 -31 -39 -27 -27 -25 -24 -12 -10 2 -4 -1 -3 -3 -3 -2 -6 -17 -23 -23 -13 -6 -5 -6 -10 -2 -10 -18 -11 -14 -30 -31 -27 -28 -17 -8 -1 -2 -3 -2 -3 0 4 4 0 -3 1 3 5 -9 -17 -23 -36 -35 -22 -1 12 2 -15 -31 -29 -19 -20 -6 -8 -3 -1 0 -1 -2 -2 -3 -2 12 24 18 8 -2 -27 -44 -64 -54 -18 9 34 32 7 -20 -18 -19 -10 -4 -1 1 0 3 1 4 1 -3 7 16 31 21 14 -9 -20 -39 -40 -34 -13 11 38 41 6 -6 -13 -12 -6 0 2 0 -1 0 2 -4 -1 -5 1 4 9 2 -24 -34 -43 -49 -45 -42 -32 -19 -5 0 2 -5 -2 -4 -5 0 -2 3 4 -5 0 -1 -3 -3 -2 1 -1 -7 -15 -19 -28 -30 -29 -35 -25 -26 -18 -7 -3 -4 0 0 -1 4 3 1 -2 1 -3 3 4 -1 3 4 -1 -3 -2 -2 -8 -5 -7 -4 -7 -1 2 -2 1 -1 -2 -3 0 1 -1 1 3 2 2 1 -4 -3 -3 3 -4 -4 3 3 -4 3 -1 1 -3 -1 1 3 3 -2 -3 0 1 3 -5 0 0 -2
4 -1 -4 -3 0 -3 1 4 0 -1 4 3 3 0 0 -4 0 4 0 -4 3 4 4 0 1 1 -2 -1 4 0 4 -3 -1 0 -3 3 3 -3 4 4 -3 0 5 -3 1 -3 3 0 1 3 -1 -5 0 0 2 2 -2 -2 3 1 1 2 2 -3 0 0 -5 4 5 8 -1 9 4 5 -1 -5 -6 -5 -6 0 2 1 -3 2 4 -1 2 0 2 -3 -3 3 3 20 27 28 31 32 19 12 14 7 -7 -8 -13 -11 -9 -7 2 3 -2 -1 -1 0 1 4 -5 3 1 8 28 38 46 53 51 41 36 25 29 19 6 -2 -22 -23 -20 -16 -8 1 4 -1 0 2 1 1 2 5 9 23 40 50 54 56 50 54 56 50 49 35 17 -9 -18 -26 -28 -18 -10 -2 2 -1 1 -5 3 -5 -1 -2 14 35 32 35 36 25 19 25 25 22 20 6 3 -12 -18 -20 -28 -25 -9 -5 -3 4 -2 -4 -3 0 0 10 26 30 25 19 9 8 8 10 16 7 -3 -19 -10 -3 -12 -16 -17 -28 -16 -5 -2 4 -2 4 0 1 1 13 19 11 13 8 6 15 7 15 26 20 -3 -8 -5 0 -11 -14 -12 -32 -25 -5 4 1 -3 1 -3 2 4 12 -3 -13 -23 -22 -7 -12 -20 -13 1 10 7 -2 -6 -8 -15 -15 -18 -31 -21 -1 -4 -2 -4 3 4 -4 -1 -8 -30 -52 -58 -52 -45 -63 -71 -77 -49 -19 -2 -7 -9 -13 -11 -15 -21 -28 -13 -2 -2 3 4 1 4 -4 -6 -29 -67 -94 -99 -95 -101 -106 -117 -122 -89 -47 -24 -17 -16 -1 -12 -14 -29 -22 -7 1 2 4 -3 1 -4 -1 -16 -48 -97 -115 -114 -112 -117 -112 -117 -114 -92 -55 -44 -43 -22 -4 -6 -17 -36 -31 -13 -1 -5 -1 -1 2 -1 1 -12 -56 -96 -105 -98 -81 -74 -62 -60 -54 -55 -50 -39 -41 -31 -13 -17 -22 -38 -32 -15 7 4 5 1 3 -4 -4 -8 -43 -61 -50 -34 -21 -13 -1 8 10 -11 -23 -22 -31 -23 -24 -27 -32 -35 -34 -14 1 9 4 5 4 -1 3 5 -11 -16 -2 4 15 17 17 22 23 5 -7 -10 -24 -35 -23 -28 -25 -24 -21 1 9 8 -2 0 -3 0 -1 16 21 25 22 16 17 13 21 30 21 1 1 -5 -19 -21 -19 -13 -3 3 2 14 24 8 -1 2 -4 -7 1 25 49 47 31 23 19 30 31 41 26 13 18 7 0 -7 -1 7 11 19 29 38 32 14 2 -4 4 -7 7 35 56 48 42 23 32 43 52 57 53 34 15 13 10 6 6 16 23 32 49 62 33 2 -1 -1 2 -1 5 20 37 49 44 44 44 45 46 48 28 18 2 8 13 15 13 19 32 51 60 51 26 7 -1 -2 -4 -6 1 19 29 40 43 41 32 35 29 13 0 3 -4 2 11 20 35 30 44 58 58 38 14 6 3 4 4 4 0 10 14 18 26 32 32 22 15 -10 -18 -13 0 8 15 28 31 31 48 50 53 25 5 2 3 0 -4 0 0 8 7 8 13 14 12 10 1 -12 -28 -31 -25 -17 0 21 25 37 35 31 23 16 7 1 0 4 3 3 -3 1 -2 -19 -17 -31 -23 -16 -16 -27 -48 -50 -52 -38 -33 -4 5 8 21 13 8 4 -2 -4 -2 1 4 0 -2 -7 -13 -17 -29 -38 -46 -44 -37 -34 -41 -40 -40 -36 -31 -21 -20 -13 -8 -6 -4 1 5 1 0 -3 -2 -1 -4 -1 -2 -7 -19 -23 -19 -23 -24 -19 -18 -21 -19 -20 -10 -11 -6 -2 -7 -5 -2 0 3 0 1 -1 2 1 -4 2 -1 3 -6 -2 0 1 -2 -4 -5 -5 2 -5 -3 1 2 -5 1 0 4 0 2 0 4 0 -3 1 -2 1 3 -4 -3 0 0 -2 4 2 -2 0 -1 -3 2 -3 1 3 -4 0 4 2 -2 1 -4
1 4 4 0 2 -1 -1 0 -3 2 2 -1 -1 -3 1 2 4 -4 -4 0 4 0 1 1 -1 3 3 -3 -3 -4 -1 0 4 -4 3 -3 0 0 3 -4 -3 0 2 -2 1 -1 -4 0 -1 3 3 3 3 -4 -4 1 1 -4 4 0 -3 3 4 1 -2 0 -4 2 2 -2 -5 2 -5 -4 2 -3 0 3 -1 -1 4 1 2 -2 -4 1 -3 -2 -4 4 -3 2 2 7 10 10 24 20 22 17 9 12 2 1 -1 -7 -5 -5 -2 -3 0 1 4 1 -1 -2 2 10 6 11 26 24 33 33 34 33 26 15 4 -1 -4 -7 -24 -23 -18 -18 -4 3 -2 4 0 -1 2 4 12 23 24 28 33 29 34 27 22 20 7 14 10 -8 -13 -18 -30 -33 -39 -34 -10 -4 3 2 -2 -1 -2 6 18 30 32 27 32 31 27 22 26 34 29 20 25 17 11 -7 -4 -24 -40 -40 -16 -6 -1 4 2 -4 3 7 28 38 37 25 10 8 11 6 15 17 31 25 13 14 8 11 14 -4 -25 -39 -32 -4 2 -4 -1 3 -3 14 30 33 28 4 1 -8 0 -16 -13 0 27 39 24 17 17 21 23 7 -19 -45 -29 -9 1 1 2 0 -1 12 22 13 7 -10 -31 -42 -64 -85 -69 -29 28 55 39 22 23 19 31 14 -19 -39 -20 -6 4 4 0 1 -2 5 6 2 -22 -54 -79 -98 -113 -113 -82 -26 37 49 39 31 28 25 29 1 -15 -21 -13 -5 4 4 4 2 2 8 2 -23 -51 -78 -97 -87 -77 -53 -33 1 29 31 29 28 25 22 8 -10 -15 -17 -2 -2 1 -2 4 -1 0 -4 -4 -32 -51 -68 -61 -44 -32 -18 -2 14 41 25 25 17 6 -16 -25 -30 -24 -18 -3 -4 1 -4 1 2 -4 -1 -11 -22 -44 -50 -43 -27 -24 -15 10 29 29 7 9 7 -8 -29 -39 -31 -33 -17 -4 1 2 1 -4 -1 3 0 -2 -17 -37 -45 -34 -27 -38 -20 10 16 5 -12 -14 -10 1 -12 -12 -20 -22 -9 -3 3 1 -4 -3 3 -4 6 -2 -16 -30 -44 -47 -43 -39 -19 4 14 -5 -24 -27 -11 5 11 12 11 -7 -9 -3 2 -2 -4 1 0 4 5 7 -5 -21 -36 -63 -78 -75 -49 -24 -13 -29 -42 -22 -8 15 24 23 25 15 -1 -1 -5 3 0 0 0 3 17 9 1 -22 -41 -69 -110 -122 -114 -97 -78 -76 -44 -10 6 18 37 15 32 22 2 -14 -8 -3 0 2 2 8 31 29 20 -8 -22 -52 -90 -111 -115 -117 -115 -85 -34 12 16 31 39 30 34 23 0 -10 -8 -2 0 4 4 4 31 44 32 16 6 -14 -37 -48 -62 -74 -72 -46 -15 21 27 40 39 36 31 7 -6 -7 -7 3 -2 1 -2 8 30 43 40 35 21 11 6 -3 -21 -27 -21 -12 0 19 29 31 23 29 13 -8 -14 -8 2 1 1 -2 -1 7 27 41 41 33 25 21 16 8 -7 -1 -4 -2 -2 10 14 24 27 16 -10 -18 -18 -3 -2 -5 -2 -3 1 3 16 33 34 36 26 15 18 17 14 0 -6 -1 -2 6 5 4 10 0 -17 -13 -11 -1 3 -4 -3 4 4 3 7 25 32 38 36 17 23 8 9 2 7 1 3 -4 -1 6 -4 -10 -16 -12 -4 -1 -1 2 2 -1 0 0 4 10 21 26 39 34 28 40 37 30 27 25 9 -1 -7 -17 -16 -16 -10 -6 1 3 0 -2 4 0 -3 3 5 6 9 13 5 16 19 19 29 25 20 14 0 -10 -18 -14 -14 -6 -10 -4 1 0 3 2 0 1 3 -4 -2 3 -4 2 2 0 -5 -5 -3 -5 -3 -4 -4 -1 -9 -8 0 -4 -5 -2 3 -1 2 3 -1 2 1 -3 -1 3 2 1 -1 -3 -2 3 0 -3 0 -4 -1 -1 -5 -3 -3 -3 4 2 -3 -2 3 4 0
0 -3 3 -1 0 -1 2 1 -1 -1 0 -4 0 -4 4 2 0 3 0 4 1 2 1 -3 -4 -2 4 2 -1 -3 5 0 -4 -2 0 -2 -3 0 -6 -1 -9 0 3 3 -7 -2 -1 -4 2 -2 0 2 -4 1 -2 3 4 -1 -3 3 -3 4 3 -1 -7 -3 -8 -14 -22 -19 -15 -12 -17 -4 -7 -1 -3 -4 -2 0 -4 -2 3 0 -2 4 -4 -1 4 0 -3 -9 -13 -19 -23 -26 -34 -45 -39 -39 -30 -19 -11 -9 -2 1 -2 2 -4 3 -4 2 -4 -1 0 -1 0 -3 -6 -5 -12 -21 -34 -36 -44 -52 -52 -42 -27 -30 -20 -5 3 -2 3 3 3 -4 1 3 3 -4 -1 2 3 5 5 -1 -3 -4 -21 -30 -39 -42 -34 -17 -7 -4 -4 8 12 15 26 34 13 5 -3 4 0 -3 0 -2 4 9 3 7 0 -10 -21 -42 -64 -66 -84 -71 -53 -43 -40 -18 -7 15 42 48 17 4 -4 -2 4 2 0 -2 -1 8 2 1 -13 -23 -37 -58 -73 -70 -94 -108 -86 -62 -51 -32 -23 -1 28 32 8 3 -2 -4 -3 -3 -5 2 4 -1 -1 -3 -22 -18 -34 -43 -50 -54 -96 -108 -80 -46 -37 -21 -15 -10 11 7 -10 -15 -1 -1 2 -3 -1 -1 -2 2 -12 -12 -17 -17 -18 -19 -21 -42 -112 -97 -38 -25 -20 -13 -21 -18 -8 -10 -17 -14 -7 2 -1 1 1 -4 1 -4 -22 -14 -6 9 7 3 6 -40 -102 -58 3 5 -8 -4 -22 -17 -11 -17 -11 -5 -3 1 3 2 -3 0 -6 -10 -9 -5 11 28 36 38 28 -49 -84 -14 33 21 -2 -9 -30 -20 -17 -20 -11 -5 -3 -1 0 -2 -5 2 -3 -6 7 24 35 38 59 82 55 -18 -53 10 44 20 -1 -14 -18 -10 -12 -16 -12 -1 2 4 4 -4 -3 0 3 19 40 47 59 52 77 98 65 -9 -19 19 45 36 19 9 9 6 3 -9 -7 -2 3 -4 -4 4 -1 -4 17 28 55 65 55 45 65 67 45 9 -9 14 46 59 40 38 20 16 11 1 2 -2 4 3 1 2 0 1 11 23 40 51 52 42 32 27 21 5 6 38 68 64 44 29 3 4 4 2 -7 2 -2 -1 -4 -2 0 1 5 12 27 45 52 34 8 3 13 20 46 68 71 54 27 9 11 9 -2 -3 -7 0 0 -2 4 4 -3 -4 -8 -14 8 28 47 32 8 6 12 42 61 64 53 22 2 -19 -7 -12 -21 -19 -13 -3 0 0 -2 -4 3 -9 -13 -26 -19 -9 -2 -2 -21 -27 -8 15 33 32 10 -18 -31 -38 -34 -28 -38 -22 -15 -4 -5 2 -3 -4 -2 -2 -16 -35 -45 -58 -64 -72 -73 -66 -60 -25 -7 -8 -18 -27 -31 -37 -36 -37 -35 -21 -11 1 4 4 4 -4 -2 -2 -14 -33 -55 -71 -83 -88 -84 -71 -54 -49 -25 -14 -20 -11 -21 -33 -29 -23 -26 -17 -8 -6 0 1 -1 -3 -3 1 -4 -25 -45 -59 -65 -68 -64 -44 -37 -35 -33 -18 -21 -3 -8 -10 -8 -15 -11 -7 -6 -3 1 0 1 0 -1 -2 -2 -15 -26 -30 -34 -37 -34 -26 -29 -29 -29 -7 -8 -5 14 15 14 3 -6 1 -3 -2 -2 2 2 -2 -3 0 1 -3 -15 -15 -22 -21 -20 -18 -21 -24 -17 -13 -1 11 23 21 14 2 1 1 -2 -2 -1 -2 -2 4 -2 4 3 -4 -3 -15 -11 -18 -17 -13 -19 -27 -29 -22 -20 -10 -5 0 1 -7 -6 -5 4 2 -4 -1 4 -4 0 -3 -4 -3 -5 -19 -22 -33 -35 -46 -46 -45 -43 -50 -47 -58 -47 -29 -27 -14 -5 -1 3 -1 3 -3 -4 -3 2 0 -1 -1 -5 -5 -11 -20 -26 -34 -31 -34 -45 -34 -32 -27 -25 -18 -6 -2 1 -2 -2 0 4 -2 -2 -2 -4 2 -1 0 4 1 3 0 -2 2 -1 -4 -5 -4 -2 0 1 3 -4 0 2 3 -3 -4 2 -3
5 -3 2 -1 -4 -4 2 -1 -3 5 3 3 -2 0 1 -1 2 -1 -1 0 -2 -3 -1 -2 -1 -2 2 -1 4 1 -2 5 -1 -4 3 -3 3 3 -1 -2 2 2 4 1 0 4 1 -4 -1 0 2 -4 -5 -3 1 3 -4 2 0 4 -3 -1 1 -4 3 -2 1 -3 3 0 -1 -4 -5 -1 -5 -1 3 0 -2 -2 2 -4 -4 0 3 -3 -1 -2 3 -2 -1 1 -3 0 -10 -12 -9 -12 -12 -10 -12 -2 -6 -8 -4 -4 -7 -3 -7 -3 3 2 2 2 -2 -4 0 0 -2 -10 -20 -24 -27 -32 -32 -38 -24 -13 1 6 -5 -5 -9 4 7 14 7 -1 4 -5 4 1 3 1 -7 -9 -20 -22 -20 -16 -8 -4 -12 -20 -8 -1 6 13 18 9 16 23 29 44 32 20 7 4 1 -2 -3 -7 -10 -21 -22 -26 -11 0 13 19 5 7 2 -5 -8 0 10 19 18 23 51 72 64 36 17 4 -1 -2 1 -3 -24 -27 -26 -15 8 11 26 20 6 -10 -14 -17 -17 0 5 18 21 32 52 77 89 59 19 1 -4 -3 -3 -12 -29 -31 -25 -8 10 13 17 17 7 -18 -37 -31 -31 -13 1 15 34 52 64 92 116 81 19 3 3 3 -2 -6 -16 -24 -18 3 25 21 24 43 26 -1 -36 -45 -55 -34 -17 2 27 40 54 81 98 76 16 6 0 -1 -2 -6 -11 -7 0 15 36 39 45 51 55 19 -12 -43 -60 -68 -78 -77 -59 -47 -31 -13 16 31 2 -2 2 2 -2 -7 1 6 12 32 34 31 40 54 67 39 -15 -52 -69 -78 -93 -120 -128 -124 -100 -73 -30 -1 0 -1 -4 -2 -2 4 -1 8 15 23 25 10 41 74 77 47 -11 -46 -64 -53 -46 -61 -73 -96 -93 -68 -39 -5 4 -2 -4 2 3 -1 -2 8 10 16 9 17 47 58 53 22 -19 -52 -57 -41 -18 -15 -25 -42 -62 -57 -36 -6 2 1 0 3 -3 1 -1 -11 -7 -9 7 25 36 25 17 -6 -32 -42 -50 -50 -40 -17 -6 -15 -31 -38 -25 -7 -4 -3 4 -1 -3 4 -6 -25 -38 -33 -10 22 14 6 3 -28 -51 -60 -53 -40 -32 -11 -9 -6 -14 -19 -8 0 -2 -3 4 0 1 -3 -4 -26 -50 -62 -56 -38 -28 -20 -25 -49 -58 -58 -39 -21 -15 0 -5 -7 -1 -6 1 3 -4 -2 -5 3 3 0 -1 -17 -14 -56 -85 -90 -77 -57 -64 -77 -67 -40 -13 0 12 11 1 -1 -5 5 7 -1 1 -4 2 -1 -4 -3 6 12 29 -12 -58 -79 -90 -91 -77 -51 -27 -4 -3 10 9 14 3 10 5 13 9 -1 1 -4 1 2 1 0 6 20 47 22 11 -12 -39 -37 -25 6 8 10 3 7 13 5 2 8 10 17 9 -4 3 -3 -3 -1 -3 -4 -2 19 35 40 49 41 31 27 20 12 -2 0 4 2 11 9 10 7 18 19 1 1 4 4 4 -4 4 0 3 -3 10 21 43 34 27 26 11 -2 -5 5 3 7 4 6 14 26 22 13 0 -4 -1 3 -3 3 -3 -6 3 -1 -6 -8 12 25 17 26 31 25 18 1 13 13 13 15 21 12 12 7 0 2 2 4 -4 1 -3 0 3 -6 -8 -6 10 10 18 29 30 22 17 12 14 4 0 3 6 11 3 -3 2 3 3 1 0 -5 -1 2 -3 -5 -2 -3 -3 4 8 19 24 25 24 17 3 3 6 0 5 6 0 -2 4 4 -2 2 4 -4 -2 4 -1 -1 -2 -1 2 6 0 8 9 10 -1 2 1 1 -5 -2 -3 -1 4 3 2 -4 2 0 -5 -4 1 -1 3 0 -4 -2 0 -2 1 1 0 2 -8 0 -1 -4 -4 0 -1 2 4 1 -1 -3 -3 0 1 -1 -4 -3 3 0 -5 -4 -2 -4 3 4 -1 3 0 -2 -1 -2 -2 3 0 2 2 3 0 0 3 -2
0 1 0 -1 2 2 -3 -1 -3 2 1 0 2 0 3 -1 3 2 4 -1 1 -4 4 0 2 -4 -1 4 -2 1 3 2 4 -2 -3 3 1 -2 -2 7 3 8 -2 3 -1 4 5 5 -1 0 -2 -1 1 3 -2 3 -1 0 -3 1 1 3 4 8 9 8 17 19 22 24 20 20 18 22 17 13 11 6 8 6 0 -2 -1 -4 2 3 -3 3 2 -4 5 6 6 13 14 19 22 26 31 31 33 45 46 49 46 43 30 13 8 1 -3 -1 1 -3 0 -4 2 -3 4 4 0 4 2 5 -1 0 2 4 19 37 43 50 46 40 26 19 9 0 -2 3 1 -2 -3 -5 1 -1 -3 -2 -4 1 -2 -23 -24 -30 -25 -22 -9 7 15 33 22 5 -1 -3 0 -3 -2 0 -4 -2 -3 3 -5 -6 -4 -8 -7 -16 -28 -34 -39 -40 -37 -36 -27 -23 -23 -17 -23 -34 -30 -29 -18 -5 -2 2 -1 2 1 3 -7 -10 -10 -13 -19 -22 -29 -31 -43 -50 -46 -37 -41 -47 -59 -67 -64 -58 -54 -37 -15 -10 -1 -1 4 2 -2 -6 -6 -13 -19 -12 -17 -25 -32 -35 -40 -47 -42 -47 -62 -74 -100 -88 -75 -70 -54 -42 -28 -9 -8 -1 -2 -3 -4 -5 -6 -17 -9 -6 1 -12 -22 -21 -21 -30 -30 -51 -81 -95 -101 -78 -66 -58 -50 -37 -23 -14 -6 -2 -3 -3 -2 -4 -5 -6 -4 4 6 -12 -6 -7 -10 -9 -20 -57 -79 -78 -68 -54 -44 -27 -18 -5 -9 -5 2 -4 -3 2 1 1 -2 0 6 11 12 2 3 -4 8 1 -30 -56 -55 -39 -36 -28 -13 7 18 25 6 3 0 0 1 1 -3 -5 -9 0 9 14 2 8 7 12 17 -3 -36 -36 -12 -9 -27 -24 -5 14 35 44 24 -2 -3 3 0 -2 4 2 -4 -1 15 14 4 7 13 21 18 -12 -25 -11 -5 -10 -29 -14 -6 20 47 59 41 6 -5 1 4 2 -4 -5 -11 3 10 9 4 16 29 35 10 -24 -7 13 3 -9 -22 -7 9 30 42 45 28 2 -7 -5 -3 4 4 -7 -17 -5 15 20 8 26 40 47 9 -12 12 18 2 -17 -9 4 12 28 32 28 15 6 -7 -4 -4 3 0 -4 -20 -16 4 22 16 29 57 54 10 -4 12 2 -17 -26 -2 6 7 1 15 16 2 -6 -12 1 3 0 3 -7 -24 -23 -10 15 27 32 61 59 28 9 8 -5 -20 -4 12 12 6 2 2 2 -8 -14 -11 2 1 1 3 -7 -25 -33 -27 2 18 28 52 67 48 17 6 5 16 20 16 17 9 11 4 -10 -20 -11 -7 -3 -4 3 2 -6 -20 -32 -37 -12 11 20 51 67 62 40 21 29 30 22 29 26 8 4 -7 -13 -13 -9 1 -1 0 -3 -3 -5 -19 -28 -35 -33 -15 10 31 40 55 55 52 52 39 28 37 19 8 -14 -16 -12 -11 -1 4 0 1 -1 0 -2 -14 -22 -39 -32 -26 -18 14 31 50 54 62 44 29 22 15 -1 -13 -20 -25 -12 0 3 -1 3 3 3 -2 -2 -7 -16 -22 -37 -46 -35 -30 -26 -17 -4 -15 -4 -8 -20 -30 -27 -28 -23 -12 -10 1 3 3 0 -3 -1 -2 -1 -5 -5 -11 -24 -40 -49 -63 -69 -70 -54 -53 -59 -62 -52 -42 -26 -19 -13 -8 -7 -1 4 4 -3 1 4 0 0 4 -1 -3 -2 -10 -22 -20 -27 -27 -38 -38 -31 -27 -29 -13 -9 -6 -6 -3 2 0 4 -3 -2 -1 2 2 2 -3 -1 1 -4 -1 -3 -4 -5 -5 -13 -11 -6 -10 -6 -6 -3 -3 -3 0 4 0 -1 4 -2 1 0 1 3 1 0 1 0 -2 -1 -4 -1 -5 0 2 -4 -6 2 -4 2 3 -2 0 -2 4 -3 1 -3 4 2 4 -2 2 -4 3 -2 1 2 -3 2 -2 2 -2 0 0 4 1 1 -1 -5 -2 -2 2 0 1 -2
-5 2 2 2 4 -4 1 4 -2 3 2 1 -4 2 4 -1 2 3 -3 -4 2 0 -2 -4 -3 1 -1 -4 0 0 -4 3 5 3 -4 -3 -4 4 -2 3 -2 2 3 -2 2 2 1 -2 -4 1 -4 -2 1 3 3 -4 -2 0 0 -1 -3 -1 -1 -3 1 -4 -4 0 -3 3 -4 -4 3 -1 3 3 4 3 3 -3 -1 0 0 4 1 -4 1 0 2 -2 4 -4 3 3 -6 -7 0 -7 -5 -8 -3 -1 0 1 1 -5 1 4 3 -3 2 1 -3 -4 -3 -4 -2 0 -3 -4 -6 -5 -16 -12 -19 -23 -27 -31 -28 -16 -21 -15 -3 -6 0 -4 -4 -3 0 0 -2 1 3 -2 2 -3 -1 -7 -12 -12 -30 -41 -59 -63 -66 -71 -67 -64 -49 -44 -28 -13 -11 -6 -7 1 -1 3 5 -3 0 -2 3 8 9 17 17 10 3 -12 -34 -58 -59 -50 -36 -35 -31 -34 -35 -18 -22 -12 -8 -2 -4 0 2 3 1 10 13 18 26 40 48 40 32 28 23 1 -3 -5 11 16 14 9 -3 -6 -13 -17 -7 -7 -3 1 1 0 2 10 21 27 31 52 44 30 35 39 37 25 19 23 40 51 41 21 16 -1 -9 -8 -11 -6 -7 -1 0 -2 5 15 26 20 19 29 25 20 29 34 46 38 46 53 66 64 48 41 25 11 0 -12 -12 -9 -3 4 0 1 8 17 21 27 13 7 2 9 22 24 28 40 52 66 74 68 51 44 34 24 10 -3 -7 -4 -2 -3 -1 2 8 18 26 19 9 4 -5 7 8 4 1 7 3 26 62 54 39 26 23 8 -4 -12 -4 2 -2 3 0 -1 8 18 16 5 -1 0 0 -13 -34 -49 -78 -104 -99 -25 33 30 21 9 -2 -9 -8 -9 -10 2 -4 -2 1 -2 8 13 11 3 -12 -12 -14 -34 -74 -114 -147 -167 -122 -35 15 14 -1 5 -7 -12 -6 -6 -4 1 -2 4 -1 2 7 7 3 -4 -20 -24 -33 -56 -95 -126 -148 -140 -81 -16 10 13 29 22 21 10 12 -4 -6 -3 4 -4 3 4 -2 9 6 -14 -23 -26 -58 -70 -92 -105 -117 -92 -47 -1 7 33 47 42 42 33 14 -4 -6 -3 0 0 1 1 3 3 2 -15 -21 -35 -57 -64 -80 -80 -63 -48 -23 12 15 36 39 40 29 11 -8 -8 -5 0 0 3 4 -3 2 -2 -1 -17 -29 -37 -49 -56 -60 -60 -38 -12 11 7 0 3 12 4 -8 -20 -19 -5 -3 -5 -4 0 3 3 0 0 -13 -22 -39 -49 -53 -55 -67 -51 -21 10 19 1 -12 -14 -16 -27 -32 -33 -26 -15 -8 0 0 3 2 2 3 -2 -14 -29 -47 -47 -57 -61 -52 -42 -17 20 14 -11 -22 -30 -35 -48 -46 -47 -32 -17 -4 -5 -2 3 2 -4 2 0 -14 -28 -46 -55 -60 -56 -40 -27 7 10 10 -15 -31 -47 -52 -54 -55 -45 -34 -18 -8 1 0 -1 2 3 1 -3 -11 -21 -31 -45 -41 -33 -31 -12 -7 2 -2 -17 -29 -41 -55 -51 -44 -34 -29 -14 0 -1 1 -3 1 3 0 -4 -5 -12 -16 -19 -11 -14 -8 -15 -20 -8 0 -7 -20 -30 -37 -38 -40 -31 -13 -11 0 -5 -1 1 4 -3 -4 -4 2 1 2 12 14 2 9 0 -8 2 4 11 -5 -5 -18 -27 -24 -16 -11 -10 0 -4 1 -2 -2 0 0 -3 0 18 23 35 36 34 29 21 20 21 20 28 19 15 -5 -11 -18 -10 -12 -10 -4 0 2 -1 -4 0 4 -2 5 14 18 28 42 40 42 49 43 36 42 42 41 33 12 0 -7 -9 -6 -2 -3 2 -1 -1 -4 2 -3 3 0 0 8 10 7 11 14 21 20 21 32 30 28 28 19 8 -4 4 -3 3 4 1 1 -2 1 4 -4 4 -2 1 3 1 -2 -2 2 0 1 2 11 3 5 11 9 7 2 4 -2 2 1 -4 4 2
2 3 1 -2 3 0 -2 3 0 1 3 3 0 0 0 2 2 3 -1 -2 -1 3 4 -2 2 4 3 0 -1 4 2 -2 1 -3 -2 4 2 -3 -1 -1 -2 -3 3 3 -2 -5 3 -3 0 -2 -2 3 4 -2 3 -3 -4 1 0 2 3 -2 1 2 0 -1 1 -5 -2 -4 -6 1 -6 -5 1 -5 -2 3 2 2 1 0 4 4 0 -2 -2 0 -4 -4 -5 1 0 -2 -6 -11 -11 -18 -21 -19 -28 -23 -18 -15 -8 -9 0 -1 -3 3 -2 4 -1 4 -3 -1 4 -1 -4 -4 -11 -8 -18 -14 -11 0 3 1 -6 -11 -26 -23 -18 -25 -19 -11 -2 0 4 2 -1 4 -4 -2 -5 0 -6 -11 -21 -12 -22 -3 16 18 26 18 16 15 4 -1 -11 -14 -28 -17 -13 -1 2 0 4 1 -1 -5 -6 -5 -13 -14 -10 -13 -7 -3 6 2 8 22 12 3 1 5 3 3 1 3 1 -3 -3 -4 -2 -1 -4 -5 1 -3 -12 -6 2 -1 -9 -11 -17 -11 -17 -8 -8 -15 1 -10 10 15 9 27 11 -6 -2 -3 -1 1 3 -3 -6 -2 3 11 7 17 0 -3 1 6 -19 -33 -11 -12 1 4 5 14 17 15 11 -13 1 -1 0 0 -1 -2 2 4 15 25 28 22 22 17 11 -9 -43 -53 -39 -22 -7 -2 4 18 30 25 3 -9 0 4 1 4 3 -4 4 10 28 37 38 32 36 17 10 4 -28 -56 -42 -27 -2 8 13 35 45 38 15 8 2 2 3 3 1 -6 7 11 31 41 47 43 26 6 15 37 35 -17 -35 -14 -2 8 31 42 49 39 23 15 3 -1 -4 2 2 2 1 10 13 17 20 24 0 -9 19 55 43 5 -6 -18 -13 6 27 32 27 27 17 4 1 4 -1 3 4 1 -1 -14 -18 -18 -19 -15 -22 -5 35 55 24 21 5 -16 -16 -16 4 1 3 -3 0 -3 -4 -2 1 -4 4 0 -11 -22 -46 -50 -60 -46 -38 9 24 43 27 17 -5 -12 -27 -27 -46 -33 -32 -16 -12 3 3 -4 -2 -2 2 -2 -8 -30 -52 -58 -57 -37 -23 -5 32 38 19 10 -10 -17 -31 -53 -62 -43 -31 -19 -15 -1 -4 3 -1 4 -3 -4 -11 -28 -47 -34 -6 5 4 13 37 25 -3 -4 -12 -29 -41 -51 -47 -47 -34 -14 -12 -4 1 3 3 -2 -5 -2 -14 -27 -33 -5 32 36 21 29 48 19 -15 -22 -17 -34 -38 -30 -23 -29 -24 -10 -12 -9 0 -2 3 2 -2 -10 -24 -26 -19 11 29 45 34 39 32 0 -35 -28 -29 -31 -25 -21 -10 -13 -15 -15 -12 -7 0 1 3 -1 -4 -12 -21 -18 -12 18 27 30 13 3 -1 -33 -44 -26 -20 -22 -12 -11 1 -10 -6 -4 -11 -6 2 4 4 0 -1 -8 -19 -13 -3 19 7 -4 -11 -32 -20 -24 -31 -26 -31 -17 -13 0 -12 3 -3 -3 -14 -5 3 1 -4 -4 -4 -6 -27 -10 -4 15 2 -7 -17 -22 -11 -1 -5 -12 -28 -14 -9 -5 -9 1 0 -11 -10 -4 -5 0 3 -1 2 -7 -21 -27 -12 1 -4 -6 3 17 32 42 29 12 -5 3 10 -6 -8 0 -5 -6 0 -4 1 3 -2 -3 2 -4 -20 -38 -41 -27 -9 -1 10 31 41 59 52 42 34 21 20 19 6 4 -7 0 -3 -4 4 -1 -1 0 3 -3 -10 -22 -33 -36 -18 -14 -3 9 8 13 16 37 30 24 22 25 9 -2 -2 4 -2 1 4 -1 0 1 3 1 -2 -13 -20 -25 -35 -38 -31 -33 -25 -29 -9 -6 -2 -5 -4 2 1 -5 -4 4 2 -5 -1 -1 -2 1 -2 -1 -1 2 -5 -3 -9 -7 -7 -10 -10 -8 -8 -11 -9 -2 -4 -7 -4 1 2 0 3 4 0 3 4 4 5 -3 -2 -2 1 0 0 1 -3 4 -5 2 3 1 3 3 0 2 -1 2 3 3 -3 3 -1 3
4 0 -2 -1 2 3 -3 -4 -4 2 3 4 -1 1 1 -1 -3 1 -2 4 3 3 3 0 0 3 -4 2 3 0 1 -4 4 -1 -4 -3 -1 0 -3 -2 3 -2 -4 2 0 1 -3 -4 0 0 -4 -3 1 1 0 1 -4 -1 4 -2 1 1 -3 3 3 4 3 -1 3 0 -5 -4 -5 -3 -6 -3 -5 2 -5 0 -2 0 3 1 -5 -3 -3 1 0 0 3 -3 -3 2 2 1 1 -7 -8 -6 -8 -12 -9 -2 0 -5 -4 3 -4 1 2 0 0 2 2 0 -2 -3 1 1 1 -2 -9 -10 -22 -32 -38 -47 -46 -35 -32 -19 -16 -7 -2 -2 -4 -1 -3 2 2 1 -4 -2 -1 1 -5 -7 -15 -26 -34 -40 -61 -68 -83 -99 -96 -85 -62 -54 -36 -32 -32 -22 -7 -4 2 -2 1 1 -2 -1 -1 -10 -24 -40 -43 -47 -43 -29 -8 9 28 26 10 6 3 -16 -28 -45 -49 -45 -27 -8 1 -3 4 -1 2 0 -16 -24 -42 -51 -52 -42 -21 3 26 45 76 83 64 42 17 -5 -16 -22 -57 -54 -39 -18 0 -4 0 4 2 -6 -23 -38 -41 -52 -31 -24 -18 -8 1 27 51 52 24 2 -3 -15 -21 -20 -41 -47 -32 -19 -7 -3 -4 2 -4 -8 -21 -28 -21 -16 -4 -4 1 7 5 15 29 17 -17 -11 -11 -21 -13 -23 -35 -38 -29 -17 0 -2 -2 -1 -7 -10 -17 -13 7 10 21 15 20 27 11 -15 -13 -32 -25 -1 8 2 13 1 -16 -22 -23 -8 -2 3 0 2 -2 -11 -9 16 36 40 40 25 21 12 -27 -37 -16 -10 1 41 37 41 44 32 10 -6 -9 -3 -3 2 -2 -2 -1 -4 11 32 46 37 33 30 9 -9 -30 10 40 39 29 50 54 64 59 39 11 -6 -13 -5 3 3 0 0 -7 2 13 35 41 23 20 12 3 -20 -11 30 49 39 45 44 58 55 40 17 -12 -25 -19 -7 -3 -2 4 -5 2 4 13 18 23 7 -8 -5 -3 -17 -9 2 1 25 45 50 31 13 -3 -21 -33 -27 -21 -1 2 1 -1 3 -5 -1 7 2 8 1 2 -16 -6 -10 -19 -24 -24 24 45 40 12 -18 -31 -45 -40 -32 -21 -1 -1 -3 4 1 2 -5 -5 0 -9 1 18 4 18 17 -6 -31 -22 15 26 15 -9 -37 -42 -59 -38 -32 -22 -3 -3 4 3 4 0 -9 -8 -20 -23 -2 11 20 24 16 -3 -9 -7 19 2 -7 -27 -42 -40 -47 -35 -27 -17 -3 -3 4 0 -4 0 -10 -16 -31 -40 -32 -19 -2 11 0 -27 -27 -8 8 -10 -17 -30 -20 -31 -34 -27 -26 -17 -3 -2 4 -4 -3 -2 -6 -17 -25 -44 -47 -52 -53 -57 -54 -49 -36 -20 -11 -21 -23 -26 -21 -17 -28 -21 -15 -5 -1 -5 0 3 1 1 -8 -16 -29 -44 -60 -65 -81 -88 -71 -59 -28 -24 -18 -25 -29 -36 -19 -15 -16 -11 -9 2 4 -1 -3 -4 0 -2 1 -10 -21 -36 -51 -65 -66 -70 -62 -41 -33 -23 -33 -35 -44 -37 -20 -9 1 -6 -5 3 -1 -4 -3 -4 0 -4 -1 -10 -16 -28 -46 -42 -41 -38 -42 -32 -40 -41 -49 -43 -42 -37 -13 1 6 4 2 4 3 -4 -3 -1 -2 2 -2 -7 -12 -24 -20 -26 -22 -21 -37 -34 -44 -44 -56 -44 -32 -13 2 19 20 14 12 5 4 -3 -1 3 -3 2 1 -2 -6 -1 3 9 9 3 -12 -13 -26 -29 -27 -9 6 21 31 37 38 24 13 0 -2 -2 3 -1 4 -4 -4 4 8 5 14 31 26 27 23 25 30 22 24 44 57 60 60 49 37 16 7 4 -3 4 0 -4 2 2 -1 0 -1 11 10 12 19 21 22 24 30 36 19 18 16 22 18 14 11 5 3 -2 -2 -3 1 -3 1 0 -1 -1 -3 -4 3 -2 -1 -3 0 -4 -1 -3 0 2 -7 1 -3 3 -4 3 2 4 1 0 -3
