2 -2 -1 2 -4 3 -1 2 1 -1 1 0 2 -2 0 0 1 0 4 1 -2 -3 -1 -2 -1 0 3 2 -4 3 1 4 3 -4 -4 -2 4 -1 2 -2 5 -2 3 0 -3 2 -3 1 -2 -1 -4 -2 2 -1 5 4 0 -3 3 1 -3 3 3 4 -3 -2 -1 -1 -6 -6 -2 -7 -5 -6 -4 -3 -1 1 -5 2 -3 -3 0 -1 3 -3 -4 3 -1 2 1 -4 -1 -4 -11 -11 -8 -9 -12 -14 -10 -16 -16 -16 -18 -16 -4 -3 3 1 1 3 4 -3 1 3 3 1 -6 -7 -9 -9 -8 -15 -10 -9 -8 -8 -9 -6 -17 -13 -4 -7 -4 -2 -1 0 -3 -4 -2 -1 -3 2 0 -4 -5 -6 -10 -13 -14 -3 1 17 17 22 23 27 24 10 -2 1 -5 -6 -14 -5 -3 -1 -4 -2 -1 2 -1 -3 -3 -8 -14 -17 -11 0 4 13 13 25 27 37 23 21 20 16 12 -10 -21 -12 -2 -4 2 3 4 -4 -3 -10 -7 -16 -19 -11 -5 2 11 11 11 20 23 39 37 26 19 10 12 10 -20 -14 -10 -3 2 -3 -1 2 -5 -7 -13 -20 -13 -12 -1 3 -2 2 8 12 33 36 32 15 6 6 11 18 -12 -17 -1 -2 0 2 0 -5 -6 -8 -13 -11 -8 -5 -4 -4 -2 -1 7 3 21 26 37 25 7 5 14 31 0 -16 -6 0 -1 1 3 -1 -10 -11 -13 -2 -9 -10 -10 -4 3 -3 -18 -30 -30 2 24 27 25 18 29 47 22 -7 -5 4 1 4 -2 -5 -17 -7 4 -4 -4 -6 -1 3 -2 -21 -56 -81 -77 -46 -8 17 22 33 44 55 34 -4 0 -1 -3 -3 1 -2 -14 -2 6 10 -4 -8 3 5 -2 -41 -87 -109 -108 -71 -28 -9 5 24 50 55 30 -4 3 -1 2 0 -5 -5 -5 6 11 12 3 0 19 9 -13 -61 -97 -110 -106 -74 -37 -35 -21 14 44 55 32 -1 1 4 1 -2 4 -4 -2 19 29 23 9 18 24 4 -27 -77 -104 -114 -96 -61 -35 -21 -8 8 32 49 24 4 -3 -2 -4 4 1 -2 -1 28 25 24 21 25 29 -14 -56 -98 -112 -116 -84 -52 -15 -7 -5 13 23 41 21 2 -3 3 -2 -4 1 -4 4 28 39 29 17 21 23 -29 -82 -121 -113 -98 -68 -25 -4 -1 4 13 22 21 14 3 3 4 -4 2 1 -11 -1 24 34 25 23 28 18 -22 -88 -110 -105 -79 -29 -3 10 8 14 10 13 13 2 -5 -4 -2 -1 -3 -2 -15 -2 17 24 18 13 36 44 -12 -65 -83 -72 -35 -12 5 8 1 -1 3 10 5 0 -4 1 1 2 1 -1 -12 -3 10 18 18 17 29 46 20 -15 -27 -29 -13 -6 -1 -9 -11 -1 1 -1 -2 3 -3 -3 -3 -2 -1 -2 -11 -5 7 14 11 15 28 51 36 10 -7 -12 -9 -9 -10 -14 -17 -4 1 -5 -1 -2 -4 -2 3 2 4 -1 -2 -5 6 13 20 13 21 36 46 24 6 1 -6 -12 -19 -14 -11 -10 -6 -7 -6 -3 1 1 3 2 2 4 -1 -6 -1 13 17 23 26 23 38 31 32 18 7 1 -9 -16 -12 -12 -13 -12 -6 -1 -1 4 4 3 2 -4 3 -8 -3 -3 8 14 24 28 35 34 31 15 8 -5 -5 -18 -24 -16 -13 -1 -4 -4 -3 2 -1 -4 1 0 2 -3 -5 -1 -12 -6 -6 -8 -6 2 -3 -4 -12 -17 -25 -18 -18 -16 -10 -6 -5 2 -2 3 3 -3 -3 -2 3 0 -3 -2 -5 -11 -24 -25 -26 -26 -31 -30 -24 -23 -18 -17 -13 -3 -1 0 -5 2 3 1 -2 0 -2 4 4 -1 -4 1 0 -2 -11 -6 -8 -10 -11 -8 -7 -11 -3 -1 1 1 -2 2 3 2 -3 -2 4 3 3 -2 -1 -3 -3 3 -4 -1 1 -3 1 -2 0 -6 -1 -6 2 3 -2 0 -3 -3 -2 -2 1 -1 0
-4 -3 -4 -3 4 2 -4 -1 0 2 4 1 3 -2 0 -3 1 4 3 5 -2 -1 1 4 -4 -2 1 -3 2 0 -1 2 3 4 2 0 4 4 -2 2 1 -2 -1 -1 -3 -2 2 3 0 -5 2 -1 4 -4 -1 4 2 -2 -4 0 2 -4 -4 0 -1 3 -5 -1 -4 -1 -1 4 -5 -6 -5 -7 1 -2 -3 3 -1 2 -1 -4 1 3 -4 0 1 0 0 -2 -5 -5 -13 -15 -13 -11 -4 -2 -5 -15 -13 -12 -10 -3 1 3 2 2 -2 -3 -2 4 -1 0 -4 -1 -3 -8 -8 -19 -14 -5 4 13 9 6 -6 -6 -9 4 20 24 18 6 0 1 -4 3 1 -4 2 3 2 1 -5 -14 -24 -28 -25 -1 13 13 5 -4 -20 -25 -15 2 23 33 25 10 -3 -3 4 -3 0 4 -4 -1 4 -3 -10 -23 -37 -53 -45 -21 -2 -2 -15 -41 -42 -46 -25 -6 11 16 8 -9 -10 -10 2 3 -1 2 1 3 -4 -8 -20 -24 -51 -62 -57 -36 -19 -25 -36 -38 -48 -45 -29 0 1 -5 -12 -25 -21 -8 2 -2 -1 -4 3 4 3 -8 -20 -33 -48 -66 -69 -53 -34 -15 -12 -5 -20 -17 -12 -14 -25 -27 -42 -40 -24 -11 2 -1 -4 1 -3 0 -5 -6 -21 -23 -39 -51 -58 -46 -33 -1 27 35 19 -9 -16 -31 -38 -49 -52 -35 -21 -6 -5 0 -4 0 0 -4 -6 -8 -10 -16 -31 -38 -47 -50 -35 15 72 81 38 -11 -25 -35 -41 -41 -35 -24 -11 2 2 1 -3 -3 4 -1 -6 -4 -10 -14 -20 -30 -51 -62 -46 27 101 101 34 -17 -30 -34 -39 -24 -16 -5 -7 -5 -1 1 3 4 3 1 -2 -3 -9 -10 -23 -33 -62 -79 -46 40 110 83 10 -22 -33 -36 -33 -13 -7 -6 -2 -1 -3 -2 0 -4 -4 1 -3 -4 -5 -14 -18 -46 -81 -89 -42 49 110 63 -6 -24 -47 -36 -28 -19 -9 -9 -1 -2 0 -2 2 4 -1 -3 -5 2 -4 -11 -26 -52 -79 -74 -16 60 95 54 -13 -56 -51 -36 -22 -18 -11 -4 -2 4 2 1 1 -4 -2 1 -4 -7 -6 -15 -33 -53 -66 -39 10 62 85 23 -31 -73 -59 -40 -27 -21 -14 -9 -7 -4 3 3 4 -3 3 -2 -2 -6 -14 -25 -36 -48 -35 -24 8 66 75 4 -57 -77 -58 -40 -24 -20 -11 -8 -8 -2 3 1 1 0 -2 -3 3 -10 -21 -32 -37 -30 -13 -7 31 71 53 -22 -65 -77 -56 -38 -23 -17 -13 -12 -7 -3 3 1 0 1 3 0 -1 -19 -38 -38 -30 -11 2 9 33 53 37 -29 -54 -50 -49 -31 -24 -17 -21 -19 -10 0 0 0 0 2 0 -5 -10 -23 -43 -31 -18 -1 -6 1 17 25 7 -23 -35 -31 -39 -27 -27 -25 -24 -12 -10 2 -4 -1 -3 -3 -3 -2 -6 -17 -23 -23 -13 -6 -5 -6 -10 -2 -9 -18 -11 -14 -30 -31 -27 -28 -17 -9 -1 -2 -3 -2 -3 0 4 4 0 -3 1 3 5 -9 -17 -23 -36 -35 -22 -1 12 2 -15 -31 -29 -19 -20 -6 -8 -3 -1 0 -1 -2 -2 -3 -2 13 24 18 8 -2 -27 -45 -66 -55 -18 10 34 34 8 -20 -18 -19 -10 -4 -1 1 0 3 1 4 1 -3 7 16 31 21 14 -9 -20 -39 -40 -34 -14 11 38 43 6 -6 -13 -12 -6 0 2 0 -1 0 2 -4 -1 -5 1 4 9 2 -25 -35 -44 -50 -45 -42 -33 -20 -5 0 2 -5 -2 -4 -5 0 -2 3 4 -5 0 -1 -3 -3 -2 1 -1 -7 -15 -18 -28 -30 -29 -35 -25 -26 -18 -7 -3 -4 0 0 -1 4 3 1 -2 1 -3 3 4 -1 3 4 -1 -3 -2 -2 -8 -5 -7 -4 -7 -1 2 -2 1 -1 -2 -3 0 1 -1 1 3 2 2 1 -4 -3 -3 3 -4 -4 3 3 -4 3 -1 1 -3 -1 1 3 3 -2 -3 0 1 3 -5 0 0 -2
4 -1 -4 -3 0 -3 1 4 0 -1 4 3 3 0 0 -4 0 4 0 -4 3 4 4 0 1 1 -2 -1 4 0 4 -3 -1 0 -3 3 3 -3 4 4 -3 0 5 -3 1 -3 3 0 1 3 -1 -5 0 0 2 2 -2 -2 3 1 1 2 2 -3 0 0 -5 4 5 8 -1 9 4 5 -1 -5 -6 -5 -6 0 2 1 -3 2 4 -1 2 0 2 -3 -3 3 3 20 27 29 32 33 19 12 14 7 -7 -8 -13 -11 -9 -7 2 3 -2 -1 -1 0 1 4 -5 3 1 8 28 39 47 54 51 41 36 25 29 19 6 -2 -22 -23 -20 -16 -8 1 4 -1 0 2 1 1 2 5 9 23 40 50 55 56 50 55 56 50 49 35 17 -9 -18 -26 -28 -18 -10 -2 2 -1 1 -5 3 -5 -1 -2 14 35 32 35 36 25 19 25 25 22 20 6 3 -12 -18 -20 -29 -26 -9 -5 -3 4 -2 -4 -3 0 0 10 26 30 24 19 9 8 8 10 16 7 -3 -21 -10 -3 -12 -16 -17 -29 -16 -5 -2 4 -2 4 0 1 1 13 19 11 13 8 6 15 7 15 28 20 -3 -8 -5 0 -11 -14 -12 -33 -25 -5 4 1 -3 1 -3 2 4 12 -3 -13 -23 -23 -7 -12 -20 -13 1 10 7 -2 -6 -8 -15 -15 -18 -32 -21 -1 -4 -2 -4 3 4 -4 -1 -8 -30 -53 -59 -52 -46 -65 -73 -79 -50 -19 -2 -7 -9 -13 -11 -15 -21 -28 -13 -2 -2 3 4 1 4 -4 -6 -30 -70 -98 -102 -100 -106 -109 -120 -127 -93 -47 -24 -17 -16 -1 -12 -14 -29 -22 -7 1 2 4 -3 1 -4 -1 -16 -50 -102 -120 -119 -117 -122 -115 -120 -118 -96 -57 -46 -45 -22 -4 -6 -17 -36 -31 -13 -1 -5 -1 -1 2 -1 1 -12 -59 -101 -110 -102 -83 -75 -62 -60 -54 -56 -51 -41 -43 -31 -13 -17 -22 -38 -32 -15 7 4 5 1 3 -4 -4 -8 -45 -63 -51 -34 -21 -13 -1 8 11 -11 -23 -22 -32 -23 -24 -27 -33 -35 -35 -14 1 9 4 5 4 -1 3 5 -11 -16 -2 4 15 17 17 22 23 5 -7 -10 -25 -36 -23 -29 -25 -24 -21 1 9 8 -2 0 -3 0 -1 16 22 26 22 16 17 13 21 30 21 1 1 -5 -19 -21 -19 -13 -3 3 2 14 25 8 -1 2 -4 -7 1 26 51 49 31 23 19 30 31 41 26 13 18 7 0 -7 -1 7 11 19 29 40 34 14 2 -4 4 -7 7 36 58 50 42 23 32 44 53 59 54 34 15 13 10 6 6 16 23 32 51 66 34 2 -1 -1 2 -1 5 20 37 50 45 45 45 45 47 49 29 18 2 8 13 15 13 19 32 52 61 52 26 7 -1 -2 -4 -6 1 19 29 40 44 42 32 35 31 13 0 3 -4 2 11 20 35 30 44 59 60 39 14 6 3 4 4 4 0 10 14 18 26 32 32 22 15 -10 -18 -13 0 8 15 28 31 31 48 51 55 25 5 2 3 0 -4 0 0 8 7 8 13 14 12 10 1 -12 -28 -31 -25 -17 0 22 25 37 35 31 24 16 7 1 0 4 3 3 -3 1 -2 -19 -17 -31 -24 -16 -16 -27 -48 -50 -52 -38 -33 -4 5 8 22 13 8 4 -2 -4 -2 1 4 0 -2 -7 -13 -18 -30 -38 -47 -45 -38 -34 -41 -40 -40 -36 -31 -21 -20 -13 -8 -6 -4 1 5 1 0 -3 -2 -1 -4 -1 -2 -7 -19 -24 -19 -23 -24 -19 -18 -21 -19 -20 -10 -11 -6 -2 -7 -5 -2 0 3 0 1 -1 2 1 -4 2 -1 3 -6 -2 0 1 -2 -4 -5 -5 2 -5 -3 1 2 -5 1 0 4 0 2 0 4 0 -3 1 -2 1 3 -4 -3 0 0 -2 4 2 -2 0 -1 -3 2 -3 1 3 -4 0 4 2 -2 1 -4
1 4 4 0 2 -1 -1 0 -3 2 2 -1 -1 -3 1 2 4 -4 -4 0 4 0 1 1 -1 3 3 -3 -3 -4 -1 0 4 -4 3 -3 0 0 3 -4 -3 0 2 -2 1 -1 -4 0 -1 3 3 3 3 -4 -4 1 1 -4 4 0 -3 3 4 1 -2 0 -4 2 2 -2 -5 2 -5 -4 2 -3 0 3 -1 -1 4 1 2 -2 -4 1 -3 -2 -4 4 -3 2 2 7 10 10 25 21 23 17 9 12 2 1 -1 -7 -5 -5 -2 -3 0 1 4 1 -1 -2 2 10 6 11 26 24 33 34 35 35 27 16 4 -1 -4 -7 -24 -23 -18 -18 -4 3 -2 4 0 -1 2 4 12 23 24 28 33 29 33 27 22 20 7 14 9 -8 -13 -18 -30 -34 -40 -35 -10 -4 3 2 -2 -1 -2 6 18 31 32 27 32 31 27 22 26 34 29 20 25 17 11 -7 -4 -24 -41 -41 -16 -6 -1 4 2 -4 3 7 29 39 37 25 10 8 11 6 15 17 31 25 13 14 8 11 14 -4 -25 -39 -32 -4 2 -4 -1 3 -3 14 32 34 28 4 1 -8 0 -16 -13 0 29 40 25 17 17 21 23 7 -19 -47 -29 -9 1 1 2 0 -1 12 22 13 7 -10 -31 -42 -64 -87 -70 -29 30 58 40 23 23 19 33 14 -19 -41 -21 -6 4 4 0 1 -2 5 6 2 -22 -54 -80 -101 -116 -116 -85 -26 37 49 39 31 28 26 31 2 -15 -20 -13 -5 4 4 4 2 2 8 2 -23 -53 -81 -100 -88 -78 -53 -33 1 29 31 29 28 25 22 9 -10 -15 -17 -2 -2 1 -2 4 -1 0 -4 -4 -33 -54 -71 -63 -44 -32 -18 -2 14 41 25 25 17 6 -16 -26 -31 -25 -18 -3 -4 1 -4 1 2 -4 -1 -11 -23 -46 -52 -43 -27 -24 -15 10 29 29 7 9 7 -8 -29 -41 -33 -34 -17 -4 1 2 1 -4 -1 3 0 -2 -17 -39 -47 -35 -27 -39 -22 10 16 5 -12 -14 -10 1 -12 -13 -20 -22 -9 -3 3 1 -4 -3 3 -4 6 -2 -16 -31 -46 -48 -43 -39 -19 4 15 -5 -24 -27 -11 5 11 12 11 -7 -9 -3 2 -2 -4 1 0 4 5 7 -5 -21 -37 -65 -80 -77 -49 -24 -11 -29 -43 -23 -8 15 24 23 25 15 -1 -1 -5 3 0 0 0 3 17 9 1 -22 -42 -71 -115 -127 -119 -100 -80 -77 -44 -10 6 18 37 16 32 23 2 -14 -8 -3 0 2 2 8 32 29 20 -8 -22 -52 -93 -117 -120 -122 -120 -87 -34 13 16 31 39 30 35 24 0 -10 -8 -2 0 4 4 4 32 45 33 16 6 -14 -37 -48 -63 -76 -74 -46 -15 22 27 40 39 36 32 7 -6 -7 -7 3 -2 1 -2 8 31 44 41 36 21 12 7 -3 -21 -27 -21 -12 0 19 29 31 23 30 13 -8 -14 -8 2 1 1 -2 -1 7 27 42 41 33 25 21 16 8 -7 -1 -4 -2 -2 10 14 24 27 16 -10 -18 -18 -3 -2 -5 -2 -3 1 3 16 33 34 36 26 15 17 17 14 -1 -7 -1 -2 6 5 4 10 0 -17 -13 -11 -1 3 -4 -3 4 4 3 7 25 32 38 36 17 23 8 8 2 7 1 3 -4 -1 7 -4 -10 -16 -12 -4 -1 -1 2 2 -1 0 0 4 10 21 27 40 34 27 41 37 30 27 25 9 -1 -7 -17 -16 -16 -10 -6 1 3 0 -2 4 0 -3 3 5 6 9 13 5 16 19 21 31 27 21 15 0 -10 -18 -14 -14 -6 -10 -4 1 0 3 2 0 1 3 -4 -2 3 -4 2 2 0 -5 -5 -3 -5 -3 -4 -4 -1 -9 -8 0 -4 -5 -2 3 -1 2 3 -1 2 1 -3 -1 3 2 1 -1 -3 -2 3 0 -3 0 -4 -1 -1 -5 -3 -3 -3 4 2 -3 -2 3 4 0
0 -3 3 -1 0 -1 2 1 -1 -1 0 -4 0 -4 4 2 0 3 0 4 1 2 1 -3 -4 -2 4 2 -1 -3 5 0 -4 -2 0 -2 -3 0 -6 -1 -9 0 3 3 -7 -2 -1 -4 2 -2 0 2 -4 1 -2 3 4 -1 -3 3 -3 4 3 -1 -7 -3 -8 -14 -22 -19 -15 -12 -17 -4 -7 -1 -3 -4 -2 0 -4 -2 3 0 -2 4 -4 -1 4 0 -3 -9 -13 -19 -23 -26 -35 -47 -41 -40 -31 -19 -11 -9 -2 1 -2 2 -4 3 -4 2 -4 -1 0 -1 0 -3 -6 -5 -12 -21 -35 -37 -46 -53 -54 -43 -27 -30 -20 -5 3 -2 3 3 3 -4 1 3 3 -4 -1 2 3 5 5 -1 -3 -4 -22 -30 -40 -44 -34 -17 -7 -4 -4 8 12 15 26 34 14 5 -3 4 0 -3 0 -2 4 9 3 7 0 -10 -21 -44 -66 -69 -86 -73 -55 -45 -42 -19 -8 15 43 50 17 4 -4 -2 4 2 0 -2 -1 8 2 1 -13 -23 -37 -60 -76 -71 -95 -109 -88 -64 -53 -33 -25 -1 28 33 8 3 -2 -4 -3 -3 -5 2 4 -1 -1 -3 -22 -18 -34 -44 -52 -54 -97 -109 -81 -47 -38 -21 -15 -10 11 7 -10 -15 -1 -1 2 -3 -1 -1 -2 2 -12 -12 -17 -17 -18 -19 -21 -43 -116 -99 -38 -25 -20 -13 -21 -19 -8 -10 -17 -14 -7 2 -1 1 1 -4 1 -4 -22 -14 -6 9 7 3 6 -41 -107 -58 3 5 -9 -4 -22 -17 -11 -17 -11 -5 -3 1 3 2 -3 0 -6 -10 -9 -5 11 29 37 38 28 -51 -87 -14 33 21 -2 -9 -30 -20 -17 -21 -11 -5 -3 -1 0 -2 -5 2 -3 -6 7 25 37 39 60 85 58 -18 -53 11 45 19 -1 -14 -18 -10 -12 -16 -12 -1 2 4 4 -4 -3 0 3 19 41 48 61 53 79 104 70 -9 -19 19 45 36 19 9 10 6 3 -9 -7 -2 3 -4 -4 4 -1 -4 17 29 56 66 55 45 66 69 47 9 -9 14 47 60 41 39 20 16 11 1 2 -2 4 3 1 2 0 1 11 23 40 51 51 42 32 27 21 5 6 38 69 65 44 29 2 4 4 2 -7 2 -2 -1 -4 -2 0 1 5 12 27 45 54 34 8 2 13 20 46 69 72 55 27 9 11 9 -2 -3 -7 0 0 -2 4 4 -3 -4 -8 -14 8 28 49 34 8 6 12 42 63 65 53 22 2 -19 -7 -12 -21 -19 -13 -3 0 0 -2 -4 3 -9 -13 -26 -19 -9 -2 -2 -22 -27 -8 15 33 32 10 -19 -32 -39 -34 -28 -39 -22 -15 -4 -5 2 -3 -4 -2 -2 -16 -35 -46 -59 -66 -74 -75 -68 -62 -26 -7 -8 -18 -27 -31 -37 -36 -37 -36 -21 -11 1 4 4 4 -4 -2 -2 -14 -33 -56 -73 -86 -91 -86 -72 -56 -51 -25 -14 -20 -11 -21 -33 -30 -23 -26 -17 -8 -6 0 1 -1 -3 -3 1 -4 -25 -46 -60 -66 -69 -65 -44 -37 -35 -33 -18 -21 -3 -8 -10 -8 -15 -11 -7 -6 -3 1 0 1 0 -1 -2 -2 -15 -26 -30 -34 -37 -34 -26 -29 -29 -29 -7 -9 -5 14 15 14 3 -6 1 -3 -2 -2 2 2 -2 -3 0 1 -3 -15 -15 -22 -21 -20 -18 -21 -24 -17 -13 -1 11 23 21 14 2 1 1 -2 -2 -1 -2 -2 4 -2 4 3 -4 -3 -15 -11 -18 -17 -13 -19 -27 -30 -22 -20 -10 -5 0 1 -7 -6 -5 4 2 -4 -1 4 -4 0 -3 -4 -3 -5 -19 -22 -33 -35 -47 -47 -46 -43 -50 -48 -60 -48 -29 -27 -14 -5 -1 3 -1 3 -3 -4 -3 2 0 -1 -1 -5 -5 -11 -20 -26 -35 -32 -35 -47 -35 -33 -28 -26 -18 -6 -2 1 -2 -2 0 4 -2 -2 -2 -4 2 -1 0 4 1 3 0 -2 2 -1 -4 -5 -4 -2 0 1 3 -4 0 2 3 -3 -4 2 -3
5 -3 2 -1 -4 -4 2 -1 -3 5 3 3 -2 0 1 -1 2 -1 -1 0 -2 -3 -1 -2 -1 -2 2 -1 4 1 -2 5 -1 -4 3 -3 3 3 -1 -2 2 2 4 1 0 4 1 -4 -1 0 2 -4 -5 -3 1 3 -4 2 0 4 -3 -1 1 -4 3 -2 1 -3 3 0 -1 -4 -5 -1 -5 -1 3 0 -2 -2 2 -4 -4 0 3 -3 -1 -2 3 -2 -1 1 -3 0 -10 -12 -9 -12 -12 -10 -12 -2 -6 -8 -4 -4 -7 -3 -7 -3 3 2 2 2 -2 -4 0 0 -2 -10 -20 -25 -28 -33 -33 -38 -24 -13 1 6 -5 -5 -10 4 7 14 7 -1 4 -5 4 1 3 1 -7 -9 -20 -22 -20 -16 -8 -4 -12 -21 -8 -1 6 13 17 9 16 23 29 44 32 19 7 4 1 -2 -3 -7 -10 -21 -22 -26 -11 0 13 19 5 7 2 -4 -8 0 10 19 18 23 51 73 66 37 17 4 -1 -2 1 -3 -25 -28 -26 -15 8 11 26 20 6 -9 -14 -17 -17 0 5 18 21 32 52 79 92 61 19 1 -4 -3 -3 -12 -31 -33 -26 -8 10 13 17 17 7 -19 -39 -32 -31 -13 1 15 34 52 65 95 121 86 19 3 3 3 -2 -6 -16 -24 -18 3 25 21 24 43 26 -1 -38 -48 -58 -35 -17 2 28 42 57 86 105 81 16 6 0 -1 -2 -6 -11 -7 0 15 36 40 45 51 55 19 -12 -45 -62 -69 -79 -79 -60 -47 -31 -13 18 33 2 -2 2 2 -2 -7 1 6 12 32 34 31 40 54 68 40 -15 -53 -69 -78 -94 -124 -127 -127 -105 -76 -31 -1 0 -1 -4 -2 -2 4 -1 8 16 23 25 10 41 74 79 50 -12 -48 -66 -53 -46 -61 -74 -101 -98 -73 -41 -5 4 -2 -4 2 3 -1 -2 8 10 16 9 17 47 60 53 22 -20 -54 -59 -42 -18 -15 -25 -42 -64 -60 -38 -6 2 1 0 3 -3 1 -1 -11 -7 -9 7 25 36 24 17 -6 -32 -43 -51 -52 -42 -18 -6 -15 -31 -38 -25 -7 -4 -3 4 -1 -3 4 -6 -25 -38 -33 -10 23 14 6 3 -28 -53 -62 -55 -42 -34 -12 -9 -6 -14 -19 -8 0 -2 -3 4 0 1 -3 -4 -26 -52 -65 -58 -38 -28 -20 -25 -49 -60 -61 -41 -22 -16 0 -5 -7 -1 -6 1 3 -4 -2 -5 3 3 0 -1 -17 -14 -59 -90 -93 -79 -57 -66 -80 -70 -41 -14 0 12 11 1 -1 -5 5 7 -1 1 -4 2 -1 -4 -3 6 12 30 -12 -60 -83 -95 -94 -79 -51 -27 -4 -3 10 9 14 3 10 5 13 9 -1 1 -4 1 2 1 0 6 21 49 22 11 -12 -39 -37 -24 7 8 10 3 7 13 5 2 8 10 18 9 -4 3 -3 -3 -1 -3 -4 -2 19 36 40 50 40 31 28 21 12 -2 0 4 2 11 9 10 7 19 20 1 1 4 4 4 -4 4 0 3 -3 10 21 43 34 27 26 11 -2 -5 5 3 7 4 6 14 26 23 13 0 -4 -1 3 -3 3 -3 -6 3 -1 -6 -8 12 25 17 26 31 26 18 1 13 13 13 15 21 12 12 7 0 2 2 4 -4 1 -3 0 3 -6 -8 -6 10 10 18 29 30 22 17 12 14 4 0 3 6 11 3 -3 2 3 3 1 0 -5 -1 2 -3 -5 -2 -3 -3 4 8 19 24 25 25 17 3 3 6 0 5 6 0 -2 4 4 -2 2 4 -4 -2 4 -1 -1 -2 -1 2 6 0 8 9 11 -1 2 1 1 -5 -2 -3 -1 4 3 2 -4 2 0 -5 -4 1 -1 3 0 -4 -2 0 -2 1 1 0 2 -8 0 -1 -4 -4 0 -1 2 4 1 -1 -3 -3 0 1 -1 -4 -3 3 0 -5 -4 -2 -4 3 4 -1 3 0 -2 -1 -2 -2 3 0 2 2 3 0 0 3 -2
0 1 0 -1 2 2 -3 -1 -3 2 1 0 2 0 3 -1 3 2 4 -1 1 -4 4 0 2 -4 -1 4 -2 1 3 2 4 -2 -3 3 1 -2 -2 7 3 8 -2 3 -1 4 5 5 -1 0 -2 -1 1 3 -2 3 -1 0 -3 1 1 3 4 8 9 8 17 19 22 24 20 20 18 22 17 13 11 6 8 6 0 -2 -1 -4 2 3 -3 3 2 -4 5 6 6 13 14 19 22 26 31 31 33 45 46 49 46 43 31 13 8 1 -3 -1 1 -3 0 -4 2 -3 4 4 0 4 2 5 -1 0 2 4 19 37 43 50 47 41 27 20 9 0 -2 3 1 -2 -3 -5 1 -1 -3 -2 -4 1 -2 -24 -24 -30 -25 -22 -9 7 15 33 23 5 -1 -3 0 -3 -2 0 -4 -2 -3 3 -5 -6 -4 -8 -7 -16 -29 -35 -39 -41 -37 -36 -27 -23 -23 -17 -23 -34 -30 -29 -18 -5 -2 2 -1 2 1 3 -7 -10 -10 -13 -19 -23 -30 -32 -45 -51 -46 -36 -42 -47 -60 -69 -66 -60 -56 -38 -15 -10 -1 -1 4 2 -2 -6 -6 -13 -19 -12 -17 -26 -33 -36 -42 -49 -44 -48 -64 -76 -103 -91 -77 -72 -56 -44 -29 -9 -8 -1 -2 -3 -4 -5 -6 -17 -9 -6 1 -13 -23 -21 -21 -31 -31 -53 -83 -98 -104 -80 -68 -59 -52 -38 -24 -14 -6 -2 -3 -3 -2 -4 -5 -6 -4 4 6 -12 -7 -7 -11 -9 -21 -59 -81 -80 -70 -55 -45 -27 -18 -5 -9 -5 2 -4 -3 2 1 1 -2 0 6 11 12 1 3 -4 9 1 -30 -57 -55 -39 -36 -28 -13 7 18 26 6 3 0 0 1 1 -3 -5 -9 0 9 14 2 8 7 12 17 -3 -36 -36 -12 -9 -28 -26 -5 14 35 46 24 -2 -3 3 0 -2 4 2 -4 -1 15 14 4 7 13 21 18 -12 -25 -11 -5 -10 -31 -15 -7 20 47 62 43 6 -5 1 4 2 -4 -5 -11 3 10 9 4 16 29 35 10 -25 -7 13 3 -10 -22 -7 8 30 42 47 29 2 -7 -5 -3 4 4 -7 -17 -5 15 20 8 26 40 48 9 -12 12 18 2 -17 -9 4 12 28 32 28 15 6 -7 -4 -4 3 0 -4 -20 -16 4 23 16 30 58 55 10 -4 12 2 -17 -26 -2 6 7 1 15 16 2 -6 -12 1 3 0 3 -7 -24 -24 -10 15 27 32 62 60 28 9 8 -5 -20 -4 12 12 5 1 2 2 -8 -14 -11 2 1 1 3 -7 -25 -34 -27 2 18 28 52 67 49 17 6 5 16 20 16 17 10 11 4 -10 -20 -11 -7 -3 -4 3 2 -6 -20 -32 -37 -12 11 20 51 67 63 40 21 29 30 22 29 26 8 4 -7 -13 -13 -9 1 -1 0 -3 -3 -5 -19 -28 -35 -33 -15 10 31 40 55 55 53 52 39 28 37 19 8 -14 -16 -12 -11 -1 4 0 1 -1 0 -2 -14 -22 -39 -32 -26 -19 14 31 50 54 62 44 29 22 16 -1 -13 -20 -25 -12 0 3 -1 3 3 3 -2 -2 -7 -16 -22 -37 -46 -35 -30 -26 -17 -4 -15 -4 -8 -20 -30 -27 -28 -23 -12 -10 1 3 3 0 -3 -1 -2 -1 -5 -5 -11 -24 -41 -50 -64 -70 -70 -54 -53 -59 -62 -53 -42 -26 -19 -13 -8 -7 -1 4 4 -3 1 4 0 0 4 -1 -3 -2 -10 -22 -20 -27 -27 -38 -38 -31 -27 -29 -13 -9 -6 -6 -3 2 0 4 -3 -2 -1 2 2 2 -3 -1 1 -4 -1 -3 -4 -5 -5 -13 -11 -6 -10 -6 -6 -3 -3 -3 0 4 0 -1 4 -2 1 0 1 3 1 0 1 0 -2 -1 -4 -1 -5 0 2 -4 -6 2 -4 2 3 -2 0 -2 4 -3 1 -3 4 2 4 -2 2 -4 3 -2 1 2 -3 2 -2 2 -2 0 0 4 1 1 -1 -5 -2 -2 2 0 1 -2
-5 2 2 2 4 -4 1 4 -2 3 2 1 -4 2 4 -1 2 3 -3 -4 2 0 -2 -4 -3 1 -1 -4 0 0 -4 3 5 3 -4 -3 -4 4 -2 3 -2 2 3 -2 2 2 1 -2 -4 1 -4 -2 1 3 3 -4 -2 0 0 -1 -3 -1 -1 -3 1 -4 -4 0 -3 3 -4 -4 3 -1 3 3 4 3 3 -3 -1 0 0 4 1 -4 1 0 2 -2 4 -4 3 3 -6 -7 0 -7 -5 -8 -3 -1 0 1 1 -5 1 4 3 -3 2 1 -3 -4 -3 -4 -2 0 -3 -4 -6 -5 -16 -12 -19 -23 -27 -31 -28 -16 -21 -15 -3 -6 0 -4 -4 -3 0 0 -2 1 3 -2 2 -3 -1 -7 -12 -12 -29 -42 -59 -65 -68 -73 -69 -66 -50 -45 -28 -13 -11 -6 -7 1 -1 3 5 -3 0 -2 3 8 10 17 17 10 3 -12 -34 -59 -60 -50 -36 -35 -31 -34 -35 -18 -22 -12 -8 -2 -4 0 2 3 1 10 13 18 26 40 49 40 32 28 24 1 -3 -6 12 17 14 9 -3 -6 -13 -17 -7 -7 -3 1 1 0 2 10 21 27 31 53 44 30 34 39 37 25 19 23 40 51 41 21 16 -1 -9 -8 -11 -6 -7 -1 0 -2 5 15 27 20 19 29 24 20 29 34 46 38 46 53 67 64 48 41 24 11 0 -12 -12 -9 -3 4 0 1 8 17 21 27 12 7 -1 8 22 24 28 40 53 67 77 70 51 44 34 24 10 -3 -7 -4 -2 -3 -1 2 8 18 26 19 9 4 -4 7 8 4 1 7 3 28 64 54 39 26 23 8 -4 -12 -4 2 -2 3 0 -1 8 18 16 5 -1 0 0 -13 -35 -50 -84 -111 -107 -25 35 29 21 9 -2 -9 -8 -9 -10 2 -4 -2 1 -2 8 13 11 3 -12 -12 -14 -34 -75 -121 -127 -127 -127 -35 13 14 -1 5 -7 -13 -6 -6 -4 1 -2 4 -1 2 7 7 3 -4 -20 -23 -33 -55 -98 -127 -127 -127 -84 -17 10 13 30 23 21 10 12 -4 -6 -3 4 -4 3 4 -2 9 6 -14 -23 -26 -59 -71 -94 -108 -121 -94 -49 -1 7 35 49 44 44 35 15 -4 -6 -3 0 0 1 1 3 3 2 -15 -20 -35 -57 -64 -81 -82 -64 -47 -24 12 15 38 40 41 30 12 -8 -8 -5 0 0 3 4 -3 2 -2 -1 -17 -28 -37 -49 -55 -61 -58 -38 -12 11 7 0 3 12 4 -8 -20 -19 -5 -3 -5 -4 0 3 3 0 0 -13 -22 -40 -50 -54 -55 -66 -50 -20 10 19 0 -13 -14 -17 -27 -32 -34 -27 -15 -8 0 0 3 2 2 3 -2 -14 -30 -49 -49 -58 -63 -53 -43 -18 18 14 -12 -23 -31 -37 -49 -48 -49 -34 -17 -4 -5 -2 3 2 -4 2 0 -14 -28 -47 -57 -62 -56 -41 -29 6 10 9 -18 -34 -49 -55 -56 -57 -47 -36 -18 -8 1 0 -1 2 3 1 -3 -11 -21 -31 -46 -41 -33 -32 -13 -9 1 -3 -18 -30 -43 -58 -53 -46 -36 -30 -14 0 -1 1 -3 1 3 0 -4 -5 -12 -16 -19 -11 -14 -8 -17 -22 -9 -1 -7 -20 -30 -38 -39 -42 -32 -13 -11 0 -5 -1 1 4 -3 -4 -4 2 1 2 13 14 2 8 -1 -10 2 4 11 -5 -5 -18 -28 -25 -16 -11 -10 0 -4 1 -2 -2 0 0 -3 0 18 24 36 36 34 28 21 20 21 20 27 19 15 -5 -11 -18 -10 -12 -10 -4 0 2 -1 -4 0 4 -2 5 14 18 28 42 40 43 50 42 35 42 42 41 33 12 0 -7 -9 -6 -2 -3 2 -1 -1 -4 2 -3 3 0 0 8 10 7 11 14 20 20 21 32 30 28 29 19 8 -4 4 -3 3 4 1 1 -2 1 4 -4 4 -2 1 3 1 -2 -2 2 0 1 2 11 3 5 11 9 7 2 4 -2 2 1 -4 4 2
2 3 1 -2 3 0 -2 3 0 1 3 3 0 0 0 2 2 3 -1 -2 -1 3 4 -2 2 4 3 0 -1 4 2 -2 1 -3 -2 4 2 -3 -1 -1 -2 -3 3 3 -2 -5 3 -3 0 -2 -2 3 4 -2 3 -3 -4 1 0 2 3 -2 1 2 0 -1 1 -5 -2 -4 -6 1 -6 -5 1 -5 -2 3 2 2 1 0 4 4 0 -2 -2 0 -4 -4 -5 1 0 -2 -6 -11 -11 -18 -21 -19 -28 -23 -18 -15 -8 -9 0 -1 -3 3 -2 4 -1 4 -3 -1 4 -1 -4 -4 -11 -8 -18 -14 -11 0 3 1 -6 -11 -26 -23 -18 -25 -19 -11 -2 0 4 2 -1 4 -4 -2 -5 0 -6 -11 -21 -12 -22 -3 18 19 25 18 15 15 4 -1 -11 -14 -28 -17 -13 -1 2 0 4 1 -1 -5 -6 -5 -13 -14 -10 -13 -7 -3 6 2 8 22 12 3 1 5 3 3 1 3 1 -3 -3 -4 -2 -1 -4 -5 1 -3 -12 -6 2 -1 -9 -11 -17 -11 -17 -8 -8 -15 1 -10 10 15 9 28 11 -6 -2 -3 -1 1 3 -3 -6 -2 3 11 7 17 0 -3 2 6 -19 -32 -11 -12 1 4 5 14 17 15 11 -13 1 -1 0 0 -1 -2 2 4 15 25 28 22 22 17 11 -9 -44 -55 -38 -22 -6 -2 4 18 30 25 3 -9 0 4 1 4 3 -4 4 10 28 37 38 32 36 17 10 4 -28 -58 -44 -27 -2 8 14 35 45 38 15 8 2 2 3 3 1 -6 7 11 32 43 48 44 26 6 15 38 38 -17 -37 -14 -2 8 31 42 50 41 24 15 3 -1 -4 2 2 2 1 10 13 19 20 24 0 -8 18 56 46 5 -6 -18 -13 6 27 33 29 29 18 4 1 4 -1 3 4 1 -1 -14 -18 -18 -19 -15 -21 -5 35 55 24 21 5 -16 -16 -16 4 1 3 -3 0 -3 -4 -2 1 -4 4 0 -11 -22 -47 -51 -61 -46 -38 9 24 43 27 17 -5 -12 -27 -27 -46 -33 -33 -16 -12 3 3 -4 -2 -2 2 -2 -8 -31 -54 -60 -58 -37 -23 -5 32 38 19 10 -10 -17 -31 -54 -64 -44 -32 -19 -15 -1 -4 3 -1 4 -3 -4 -11 -29 -48 -34 -6 6 4 13 37 25 -3 -4 -12 -29 -41 -52 -48 -48 -35 -14 -12 -4 1 3 3 -2 -5 -2 -14 -28 -34 -5 32 36 21 28 48 19 -15 -22 -17 -34 -39 -30 -23 -29 -24 -10 -12 -9 0 -2 3 2 -2 -10 -24 -26 -19 11 29 45 34 39 32 0 -35 -28 -29 -31 -25 -21 -10 -13 -15 -15 -12 -7 0 1 3 -1 -4 -12 -21 -18 -12 18 27 30 13 1 -1 -33 -45 -26 -20 -22 -12 -11 1 -10 -6 -4 -11 -6 2 4 4 0 -1 -8 -19 -13 -3 19 7 -5 -11 -34 -20 -24 -31 -26 -31 -17 -13 0 -12 3 -3 -3 -14 -5 3 1 -4 -4 -4 -6 -27 -10 -4 16 2 -7 -17 -22 -11 -1 -5 -12 -28 -14 -9 -5 -9 1 0 -11 -11 -4 -5 0 3 -1 2 -7 -21 -27 -12 0 -4 -6 3 17 32 42 29 12 -5 3 10 -6 -8 0 -5 -6 0 -4 1 3 -2 -3 2 -4 -20 -40 -43 -27 -9 -1 10 31 41 59 52 42 35 21 20 19 6 4 -7 0 -3 -4 4 -1 -1 0 3 -3 -10 -23 -35 -37 -18 -14 -3 9 8 13 16 38 31 24 23 27 9 -2 -2 4 -2 1 4 -1 0 1 3 1 -2 -13 -20 -25 -35 -38 -31 -33 -25 -29 -9 -6 -2 -5 -4 2 1 -5 -4 4 2 -5 -1 -1 -2 1 -2 -1 -1 2 -5 -3 -9 -7 -7 -10 -10 -8 -8 -11 -9 -2 -4 -7 -4 1 2 0 3 4 0 3 4 4 5 -3 -2 -2 1 0 0 1 -3 4 -5 2 3 1 3 3 0 2 -1 2 3 3 -3 3 -1 3
4 0 -2 -1 2 3 -3 -4 -4 2 3 4 -1 1 1 -1 -3 1 -2 4 3 3 3 0 0 3 -4 2 3 0 1 -4 4 -1 -4 -3 -1 0 -3 -2 3 -2 -4 2 0 1 -3 -4 0 0 -4 -3 1 1 0 1 -4 -1 4 -2 1 1 -3 3 3 4 3 -1 3 0 -5 -4 -5 -3 -6 -3 -5 2 -5 0 -2 0 3 1 -5 -3 -3 1 0 0 3 -3 -3 2 2 1 1 -7 -8 -6 -8 -12 -9 -2 0 -5 -4 3 -4 1 2 0 0 2 2 0 -2 -3 1 1 1 -2 -9 -10 -22 -32 -39 -49 -47 -35 -32 -19 -16 -7 -2 -2 -4 -1 -3 2 2 1 -4 -2 -1 1 -5 -7 -15 -26 -34 -40 -62 -68 -85 -101 -98 -85 -62 -54 -36 -32 -32 -22 -7 -4 2 -2 1 1 -2 -1 -1 -10 -24 -41 -43 -47 -43 -29 -8 9 28 26 10 5 3 -16 -28 -45 -49 -46 -27 -8 1 -3 4 -1 2 0 -16 -25 -43 -52 -52 -42 -21 3 25 45 76 83 64 42 17 -5 -16 -22 -57 -55 -40 -18 0 -4 0 4 2 -6 -23 -39 -41 -53 -31 -24 -18 -9 1 27 51 52 24 2 -3 -15 -21 -19 -41 -48 -33 -19 -7 -3 -4 2 -4 -8 -22 -29 -21 -16 -4 -4 1 7 5 15 30 17 -17 -11 -11 -22 -13 -22 -35 -39 -30 -17 0 -2 -2 -1 -7 -10 -17 -13 7 10 22 15 20 27 11 -15 -13 -31 -26 -1 8 1 13 1 -16 -22 -23 -8 -2 3 0 2 -2 -11 -9 16 37 40 41 24 21 12 -27 -37 -16 -10 1 42 37 41 45 33 10 -6 -9 -3 -3 2 -2 -2 -1 -4 11 33 48 37 33 31 9 -8 -31 11 44 39 30 51 54 65 61 41 11 -6 -13 -5 3 3 0 0 -7 2 12 36 42 23 20 12 3 -21 -10 34 51 39 45 44 58 56 41 18 -12 -25 -19 -7 -3 -2 4 -5 2 4 13 18 23 6 -8 -5 -4 -18 -10 4 2 26 45 50 31 13 -4 -21 -33 -28 -21 -1 2 1 -1 3 -5 -1 7 2 7 1 2 -18 -8 -11 -20 -24 -24 26 45 41 12 -18 -31 -45 -41 -33 -21 -1 -1 -3 4 1 2 -5 -5 0 -9 1 18 3 18 16 -6 -31 -22 15 26 15 -10 -37 -43 -61 -39 -33 -22 -3 -3 4 3 4 0 -9 -8 -20 -23 -2 11 20 24 15 -3 -9 -7 19 2 -7 -27 -42 -41 -48 -36 -28 -17 -3 -3 4 0 -4 0 -10 -16 -32 -41 -32 -19 -2 12 1 -27 -27 -8 8 -11 -18 -31 -20 -31 -35 -27 -27 -17 -3 -2 4 -4 -3 -2 -6 -17 -26 -45 -48 -53 -53 -57 -54 -50 -37 -21 -13 -22 -23 -26 -21 -17 -28 -21 -15 -5 -1 -5 0 3 1 1 -8 -16 -29 -45 -62 -67 -84 -91 -73 -62 -29 -25 -20 -25 -29 -36 -19 -15 -16 -11 -9 2 4 -1 -3 -4 0 -2 1 -10 -21 -37 -52 -67 -68 -72 -64 -42 -35 -24 -33 -35 -45 -39 -21 -9 1 -6 -5 3 -1 -4 -3 -4 0 -4 -1 -10 -16 -28 -46 -42 -41 -38 -42 -32 -41 -42 -50 -44 -44 -39 -14 1 6 4 2 4 3 -4 -3 -1 -2 2 -2 -7 -12 -24 -20 -26 -22 -21 -37 -34 -45 -45 -58 -47 -33 -14 2 19 20 14 12 5 4 -3 -1 3 -3 2 1 -2 -6 -1 3 9 9 3 -12 -13 -27 -30 -29 -10 7 21 31 37 39 24 13 0 -2 -2 3 -1 4 -4 -4 4 8 5 15 32 27 27 23 25 30 22 24 44 57 61 61 51 38 16 7 4 -3 4 0 -4 2 2 -1 0 -1 11 10 12 20 22 23 26 32 38 20 18 16 22 18 14 11 5 3 -2 -2 -3 1 -3 1 0 -1 -1 -3 -4 3 -2 -1 -3 0 -4 -1 -3 0 2 -7 1 -3 3 -4 3 2 4 1 0 -3
